<Nnet> 
<Splice> 747 249 
[ -1 0 1 ]
<!EndOfComponent> 
<AddShift> 747 747 
<LearnRateCoef> 0  [ -0.004711199 -0.004918713 -0.009077122 -0.008495125 -0.006300405 -0.004174344 -0.003253354 -0.004727453 -0.006238166 -0.004211319 -0.003910454 -0.005209004 -0.005119225 -0.004969688 -0.004658947 -0.003440133 -0.003846773 -0.004764903 -0.004413835 -0.002677092 -0.002710263 -0.004999108 -0.006345001 -0.004687326 -0.002086751 -0.001478622 -0.003562783 -0.006485166 -0.007336968 -0.005629686 -0.005275742 -0.006096033 -0.006127608 -0.003668738 -0.002511455 -0.00254623 -0.004314622 -0.007207932 -0.006550929 -0.00698971 -0.005550341 -0.004540863 -0.004768732 -0.00419658 -0.002737795 -0.002595041 -0.006758184 -0.009670158 -0.008072551 -0.004753766 -0.002945474 -0.002697823 -0.002351419 -0.004802838 -0.008561444 -0.008829529 -0.00744509 -0.005466518 -0.0004339616 0.001100889 0.0001956774 -0.0007275146 -0.0003901293 -0.00186617 -0.001641298 0.0001028719 0.002027615 0.00293085 0.001645477 0.001116803 -0.0007635404 -0.001864849 -0.002769597 -0.00174548 -0.001409041 -0.002694349 -0.004217134 -0.006220745 -0.004866582 -0.003998476 -1.152948e-05 0.0001729601 3.065049e-05 -5.02074e-05 -4.080476e-05 -4.356882e-05 -4.603285e-05 -4.226198e-05 -4.188369e-05 -3.587989e-05 -2.778696e-05 -2.413672e-05 -2.414683e-05 -8.840546e-06 1.629537e-05 9.273518e-06 7.434821e-06 1.949505e-05 2.758702e-05 4.228094e-05 3.301252e-05 3.573924e-05 3.111814e-05 3.106226e-05 3.399803e-05 3.113609e-05 2.576336e-05 3.244474e-05 3.753609e-05 4.324059e-05 4.923305e-05 5.125973e-05 3.923727e-05 4.340909e-05 6.002477e-05 7.108063e-05 6.543212e-05 7.013204e-05 8.355245e-05 0.0001045992 0.0001135873 0.0001296735 0.000128554 0.0001395165 0.0001406982 0.0001335193 0.0001155427 0.0001073588 0.000120885 0.0001014304 0.0001068823 0.0001117428 0.0001025193 0.0001062204 0.0001086067 0.0001020856 9.987556e-05 0.0001032474 0.0001088328 0.0001148342 0.0001049629 9.703501e-05 9.096113e-05 9.197288e-05 8.351928e-05 9.345864e-05 8.813114e-05 8.223671e-05 7.829812e-05 6.541386e-05 6.216949e-05 6.407908e-05 5.808318e-05 4.769991e-05 5.377806e-05 4.046298e-05 4.144031e-05 4.054499e-05 2.753282e-05 2.252211e-05 2.732462e-05 2.259624e-05 2.340796e-05 -4.719904e-06 6.93968e-05 -9.708466e-07 1.134233e-05 1.075912e-05 5.909978e-06 1.022965e-05 1.189639e-05 1.226397e-05 7.830347e-06 4.442572e-06 -1.43181e-07 5.640428e-06 7.459906e-06 3.736875e-06 4.707619e-08 -2.711475e-06 -1.397113e-06 -8.4369e-06 -9.60491e-06 -8.330076e-06 -9.54006e-06 -8.463785e-06 -7.249673e-06 -3.649428e-06 -7.401386e-06 -5.51848e-06 -9.000675e-06 -9.469234e-06 -8.735559e-06 -9.664204e-06 -1.027233e-05 -9.509781e-06 -1.086328e-05 -1.081088e-05 -1.097737e-05 -1.187506e-05 -1.210453e-05 -1.523334e-05 -1.870984e-05 -1.691835e-05 -1.602241e-05 -1.954591e-05 -2.461337e-05 -2.307792e-05 -2.232395e-05 -2.00738e-05 -2.052263e-05 -2.168038e-05 -2.232255e-05 -1.989793e-05 -1.806148e-05 -1.899487e-05 -2.144198e-05 -1.690443e-05 -2.089897e-05 -2.109818e-05 -2.226757e-05 -2.341819e-05 -2.25348e-05 -2.427458e-05 -2.085985e-05 -1.79677e-05 -1.678431e-05 -1.508611e-05 -1.800464e-05 -1.765892e-05 -1.661794e-05 -1.356361e-05 -1.27286e-05 -1.0481e-05 -1.300858e-05 -1.185721e-05 -1.189186e-05 -1.131314e-05 -9.192325e-06 -8.734936e-06 -8.71983e-06 -9.101639e-06 -8.752731e-06 -7.313374e-06 -6.579788e-06 -5.823894e-06 -5.611269e-06 -1.622563e-06 5.567173e-08 -0.004748734 -0.004950332 -0.009118822 -0.008530612 -0.00633227 -0.004208917 -0.003290861 -0.004752552 -0.006264415 -0.004238107 -0.003914581 -0.005193786 -0.005116991 -0.00497056 -0.004643496 -0.00342332 -0.003818049 -0.004742752 -0.004392147 -0.002659695 -0.002689236 -0.004969754 -0.006323516 -0.004664474 -0.002061688 -0.001449118 -0.003525758 -0.006448927 -0.00729778 -0.00559941 -0.005243742 -0.006050058 -0.006070955 -0.003615035 -0.002456299 -0.002481826 -0.004227341 -0.007107637 -0.006436446 -0.006881761 -0.005434611 -0.004423808 -0.004661886 -0.004102134 -0.002655664 -0.00250448 -0.006688751 -0.009586635 -0.007981113 -0.004673515 -0.002860362 -0.002600407 -0.002270543 -0.00472852 -0.008482896 -0.008746833 -0.007353466 -0.005384793 -0.0003603126 0.001171337 0.0002692594 -0.0006616049 -0.0003198635 -0.001802041 -0.001581306 0.000165587 0.002076196 0.002978687 0.00169292 0.001159213 -0.000735186 -0.001827765 -0.002738924 -0.0017136 -0.001378656 -0.002677987 -0.004207026 -0.006202345 -0.004853042 -0.003981616 -2.511825e-05 0.0002404889 2.938193e-05 -4.384876e-05 -3.742826e-05 -4.310145e-05 -3.968684e-05 -3.502114e-05 -3.479646e-05 -3.526235e-05 -2.91076e-05 -2.994031e-05 -2.331121e-05 -5.98647e-06 1.46604e-05 3.674504e-06 -1.756991e-06 1.439003e-05 1.422492e-05 2.739729e-05 2.32307e-05 2.23929e-05 1.970334e-05 2.280341e-05 3.118335e-05 2.364144e-05 2.207394e-05 2.329543e-05 2.869493e-05 3.73183e-05 3.993755e-05 4.049541e-05 3.037702e-05 3.381391e-05 4.982409e-05 5.980033e-05 5.497036e-05 6.095756e-05 7.354686e-05 9.018296e-05 0.0001011474 0.0001170099 0.0001125014 0.0001177983 0.0001201622 0.0001129772 9.979559e-05 9.054958e-05 0.0001008365 8.082284e-05 8.973733e-05 9.729023e-05 8.869088e-05 9.133096e-05 0.000100242 8.807446e-05 8.495156e-05 8.723687e-05 8.961187e-05 9.536732e-05 8.343758e-05 7.831172e-05 7.508641e-05 7.603159e-05 6.933377e-05 7.357646e-05 6.785648e-05 6.385045e-05 6.409077e-05 5.174938e-05 5.090661e-05 4.994206e-05 4.454245e-05 3.478651e-05 4.062101e-05 3.170191e-05 3.253974e-05 3.149563e-05 1.89646e-05 1.323876e-05 1.859274e-05 1.61883e-05 1.750883e-05 -1.083174e-05 6.792747e-05 -1.073626e-06 5.222275e-06 4.271924e-06 1.148741e-06 5.266588e-06 6.211499e-06 6.026567e-06 1.362216e-06 -9.086122e-07 -3.402857e-06 5.532482e-07 2.197833e-06 -1.863565e-06 -4.307849e-06 -6.501688e-06 -4.979199e-06 -9.499623e-06 -1.098954e-05 -7.190217e-06 -8.215622e-06 -7.706612e-06 -5.831303e-06 -2.566139e-06 -6.11501e-06 -3.589781e-06 -6.680271e-06 -7.574684e-06 -6.595203e-06 -8.097089e-06 -7.582067e-06 -5.795946e-06 -6.733451e-06 -7.551098e-06 -8.004768e-06 -8.249463e-06 -8.329798e-06 -9.015394e-06 -1.190014e-05 -9.933776e-06 -9.428872e-06 -1.26419e-05 -1.636413e-05 -1.588171e-05 -1.660329e-05 -1.328712e-05 -1.339935e-05 -1.583106e-05 -1.534314e-05 -1.310968e-05 -1.145942e-05 -1.179905e-05 -1.232082e-05 -7.668598e-06 -1.08763e-05 -1.206913e-05 -1.304548e-05 -1.504875e-05 -1.531239e-05 -1.697821e-05 -1.481831e-05 -1.318044e-05 -1.292462e-05 -1.159785e-05 -1.508814e-05 -1.479362e-05 -1.382563e-05 -1.100343e-05 -1.048112e-05 -8.645231e-06 -1.057741e-05 -1.025344e-05 -1.034258e-05 -1.047243e-05 -7.071939e-06 -7.673139e-06 -7.497481e-06 -7.37858e-06 -7.247862e-06 -7.07238e-06 -5.636208e-06 -5.082099e-06 -4.172386e-06 -1.08096e-06 -2.706274e-08 -0.004786269 -0.004981951 -0.009160523 -0.008566098 -0.006364136 -0.00424349 -0.003328368 -0.00477765 -0.006290663 -0.004264896 -0.003918708 -0.005178568 -0.005114756 -0.004971432 -0.004628044 -0.003406506 -0.003789325 -0.004720601 -0.004370458 -0.002642298 -0.002668209 -0.0049404 -0.006302032 -0.004641623 -0.002036626 -0.001419615 -0.003488734 -0.006412689 -0.007258593 -0.005569133 -0.005211743 -0.006004083 -0.006014302 -0.003561333 -0.002401143 -0.002417422 -0.00414006 -0.007007342 -0.006321963 -0.006773813 -0.005318882 -0.004306753 -0.004555041 -0.004007687 -0.002573532 -0.002413918 -0.006619318 -0.009503113 -0.007889675 -0.004593263 -0.002775251 -0.00250299 -0.002189666 -0.004654203 -0.008404348 -0.008664137 -0.007261842 -0.005303068 -0.0002866636 0.001241785 0.0003428413 -0.0005956953 -0.0002495978 -0.001737913 -0.001521314 0.0002283021 0.002124777 0.003026524 0.001740363 0.001201623 -0.0007068315 -0.001790681 -0.002708252 -0.001681719 -0.001348272 -0.002661625 -0.004196918 -0.006183946 -0.004839502 -0.003964757 -3.870702e-05 0.0003080177 2.811337e-05 -3.749011e-05 -3.405177e-05 -4.263407e-05 -3.334084e-05 -2.77803e-05 -2.770922e-05 -3.464481e-05 -3.042824e-05 -3.57439e-05 -2.247559e-05 -3.132394e-06 1.302543e-05 -1.92451e-06 -1.09488e-05 9.285014e-06 8.62827e-07 1.251364e-05 1.344889e-05 9.046567e-06 8.288544e-06 1.454456e-05 2.836867e-05 1.614679e-05 1.838451e-05 1.414613e-05 1.985377e-05 3.1396e-05 3.064203e-05 2.97311e-05 2.151677e-05 2.421873e-05 3.962342e-05 4.852002e-05 4.450859e-05 5.178307e-05 6.354127e-05 7.576671e-05 8.870754e-05 0.0001043462 9.644891e-05 9.608001e-05 9.962624e-05 9.243516e-05 8.404851e-05 7.374036e-05 8.078799e-05 6.021528e-05 7.259235e-05 8.283772e-05 7.48625e-05 7.644148e-05 9.187729e-05 7.406335e-05 7.002755e-05 7.122638e-05 7.039095e-05 7.590048e-05 6.191223e-05 5.958843e-05 5.921171e-05 6.009031e-05 5.514826e-05 5.369428e-05 4.758181e-05 4.546419e-05 4.988343e-05 3.808489e-05 3.964372e-05 3.580503e-05 3.100172e-05 2.18731e-05 2.746396e-05 2.294086e-05 2.363917e-05 2.244628e-05 1.039638e-05 3.955411e-06 9.860863e-06 9.780351e-06 1.160971e-05 -1.694359e-05 6.645814e-05 -1.176406e-06 -8.977834e-07 -2.215267e-06 -3.612496e-06 3.035263e-07 5.26607e-07 -2.108405e-07 -5.105916e-06 -6.259796e-06 -6.662534e-06 -4.533932e-06 -3.06424e-06 -7.464005e-06 -8.662774e-06 -1.02919e-05 -8.561285e-06 -1.056235e-05 -1.237416e-05 -6.050358e-06 -6.891183e-06 -6.94944e-06 -4.412933e-06 -1.48285e-06 -4.828633e-06 -1.661083e-06 -4.359868e-06 -5.680134e-06 -4.454848e-06 -6.529976e-06 -4.891806e-06 -2.082111e-06 -2.603621e-06 -4.291321e-06 -5.03217e-06 -4.623867e-06 -4.555063e-06 -2.79745e-06 -5.090442e-06 -2.949196e-06 -2.835331e-06 -5.737892e-06 -8.114897e-06 -8.685492e-06 -1.088263e-05 -6.500431e-06 -6.276073e-06 -9.981736e-06 -8.363714e-06 -6.321438e-06 -4.857366e-06 -4.603237e-06 -3.199661e-06 1.567235e-06 -8.536291e-07 -3.040086e-06 -3.823392e-06 -6.679317e-06 -8.089984e-06 -9.681828e-06 -8.776769e-06 -8.393178e-06 -9.06492e-06 -8.109605e-06 -1.217164e-05 -1.192833e-05 -1.103333e-05 -8.443259e-06 -8.233635e-06 -6.809464e-06 -8.146242e-06 -8.649671e-06 -8.793304e-06 -9.631726e-06 -4.951553e-06 -6.611343e-06 -6.275131e-06 -5.655521e-06 -5.742994e-06 -6.831387e-06 -4.692627e-06 -4.340303e-06 -2.733502e-06 -5.393581e-07 -1.097972e-07 ]
<!EndOfComponent> 
<Rescale> 747 747 
<LearnRateCoef> 0  [ 0.3488727 0.3313895 0.2848409 0.2623805 0.2399365 0.2260637 0.2180941 0.2149318 0.2182182 0.2228508 0.2237881 0.2211062 0.2180762 0.2169451 0.2176352 0.2192771 0.2218099 0.2241951 0.2268512 0.2303195 0.233765 0.2374194 0.2417793 0.2464181 0.2506248 0.2547764 0.2575394 0.2600292 0.2607818 0.2617069 0.2629658 0.2641988 0.2668819 0.278357 0.2772747 0.2667752 0.2666468 0.2672038 0.2684237 0.2696372 0.2715565 0.2735827 0.2760577 0.2762182 0.2760447 0.2751589 0.2731161 0.2710475 0.2704292 0.2714366 0.2732797 0.2745273 0.2764955 0.2767827 0.278084 0.2797891 0.2808393 0.2816322 0.2822537 0.2832394 0.2862005 0.2890635 0.2874694 0.2888313 0.2902525 0.2921655 0.2952134 0.2964284 0.2975891 0.2997111 0.3017683 0.3050531 0.3074211 0.3090932 0.3121387 0.3156744 0.3201243 0.3224114 0.3255024 0.3285611 2.724324 2.716372 5.224711 2.029663 1.779827 1.623108 1.59279 1.48366 1.400684 1.331639 1.250978 1.242741 1.264032 1.27442 1.249403 1.234385 1.216846 1.201342 1.200999 1.208425 1.216971 1.247167 1.263091 1.271422 1.31166 1.323774 1.354697 1.368421 1.389646 1.404429 1.407549 1.405062 1.414366 1.4138 1.406855 1.402618 1.41556 1.40224 1.369437 1.357803 1.349374 1.348265 1.343518 1.357755 1.366276 1.38335 1.391657 1.403597 1.408414 1.402583 1.39142 1.383754 1.381312 1.376169 1.37192 1.371224 1.365492 1.365969 1.370986 1.375206 1.380093 1.385509 1.390755 1.404849 1.412897 1.416103 1.424174 1.429398 1.434843 1.446126 1.453679 1.462739 1.475734 1.490201 1.50877 1.522196 1.531979 1.546222 1.558837 1.577458 1.588732 1.601795 1.612 13.22877 26.73887 17.95634 5.030703 4.32691 4.078943 4.131268 3.918689 3.728133 3.529107 3.236129 3.177418 3.223665 3.258848 3.191348 3.164272 3.114866 3.062392 3.062549 3.087147 3.115207 3.225641 3.268499 3.276132 3.411027 3.423767 3.509587 3.529306 3.577508 3.609773 3.59609 3.575615 3.604104 3.594085 3.563181 3.544034 3.564823 3.533139 3.458721 3.428413 3.405456 3.401299 3.376218 3.415005 3.42698 3.467468 3.485596 3.520194 3.536716 3.52553 3.498502 3.479133 3.470729 3.449877 3.43419 3.426975 3.409421 3.408401 3.419125 3.427353 3.437164 3.448349 3.458575 3.492033 3.50902 3.523197 3.549299 3.56966 3.591074 3.627411 3.655577 3.685335 3.722075 3.762025 3.810951 3.844388 3.866963 3.900656 3.930484 3.977326 4.005814 4.038709 4.06541 33.73914 92.82145 42.38345 0.3488838 0.3313952 0.2848479 0.262386 0.2399406 0.2260675 0.2180984 0.2149353 0.2182214 0.2228541 0.2237896 0.221106 0.2180769 0.2169456 0.2176346 0.2192765 0.2218083 0.2241943 0.2268506 0.2303185 0.2337642 0.2374188 0.241779 0.2464171 0.250624 0.2547754 0.2575378 0.260028 0.2607802 0.2617056 0.262964 0.2641958 0.2668784 0.2783537 0.2772713 0.2667719 0.2666422 0.2671989 0.2684168 0.2696303 0.2715498 0.2735765 0.2760515 0.2762132 0.2760398 0.2751546 0.2731131 0.2710435 0.2704253 0.2714331 0.2732759 0.2745219 0.2764919 0.2767795 0.2780803 0.2797859 0.2808357 0.2816296 0.282251 0.2832361 0.2861968 0.2890607 0.2874655 0.2888275 0.2902486 0.2921616 0.2952112 0.2964258 0.2975867 0.2997093 0.301767 0.3050522 0.3074201 0.3090919 0.3121372 0.3156734 0.3201231 0.3224084 0.3255005 0.3285593 2.724296 2.715963 5.224706 2.029661 1.779813 1.623122 1.592784 1.483659 1.400684 1.331638 1.250975 1.24274 1.264029 1.274414 1.249401 1.23438 1.216844 1.20134 1.201001 1.208427 1.216972 1.247163 1.263088 1.271421 1.311662 1.323775 1.354698 1.368421 1.389643 1.404423 1.407547 1.40506 1.41436 1.413797 1.40685 1.402618 1.415562 1.402238 1.369438 1.357803 1.349372 1.348264 1.343515 1.357751 1.366273 1.383346 1.391654 1.403592 1.408408 1.402578 1.391418 1.38375 1.381305 1.376167 1.371915 1.371219 1.36549 1.365966 1.370983 1.375205 1.380091 1.385508 1.390754 1.404849 1.412897 1.416101 1.424173 1.429396 1.434844 1.446129 1.453682 1.462739 1.475735 1.490201 1.508773 1.522197 1.531981 1.546221 1.558832 1.577451 1.588728 1.601793 1.611998 13.22823 26.73864 17.95634 5.030647 4.326881 4.078925 4.13124 3.918661 3.728106 3.52909 3.236118 3.177401 3.223646 3.258827 3.191334 3.164251 3.114854 3.062379 3.062539 3.087136 3.115196 3.225624 3.268482 3.276115 3.411019 3.423755 3.509572 3.529296 3.577494 3.60976 3.596074 3.575603 3.604089 3.594073 3.563165 3.544019 3.564809 3.533118 3.4587 3.428393 3.405433 3.401273 3.376194 3.41498 3.426961 3.467446 3.485571 3.520163 3.536687 3.525506 3.498477 3.479114 3.470706 3.449857 3.434169 3.426952 3.409401 3.408377 3.419098 3.427328 3.437142 3.448329 3.458551 3.492014 3.509002 3.523176 3.549277 3.569638 3.591055 3.627395 3.655564 3.685325 3.722065 3.762007 3.810939 3.844378 3.866951 3.900637 3.930467 3.977313 4.005801 4.038696 4.065399 33.73825 92.81911 42.3835 0.348895 0.3314009 0.2848549 0.2623915 0.2399446 0.2260712 0.2181027 0.2149388 0.2182246 0.2228573 0.2237912 0.2211059 0.2180777 0.2169461 0.217634 0.219276 0.2218066 0.2241936 0.2268501 0.2303176 0.2337635 0.2374181 0.2417787 0.2464161 0.2506232 0.2547745 0.2575362 0.2600268 0.2607786 0.2617043 0.2629623 0.2641928 0.2668748 0.2783504 0.2772679 0.2667685 0.2666377 0.267194 0.26841 0.2696234 0.2715432 0.2735703 0.2760454 0.2762081 0.2760349 0.2751504 0.2731101 0.2710395 0.2704214 0.2714296 0.273272 0.2745164 0.2764882 0.2767763 0.2780766 0.2797827 0.2808322 0.281627 0.2822484 0.2832329 0.2861931 0.2890578 0.2874616 0.2888238 0.2902448 0.2921578 0.2952089 0.2964233 0.2975844 0.2997076 0.3017657 0.3050513 0.3074191 0.3090906 0.3121357 0.3156724 0.3201219 0.3224055 0.3254987 0.3285575 2.724269 2.715554 5.2247 2.029659 1.779799 1.623136 1.592779 1.483658 1.400684 1.331638 1.250972 1.242739 1.264025 1.274408 1.2494 1.234374 1.216841 1.201339 1.201003 1.208429 1.216973 1.24716 1.263085 1.27142 1.311665 1.323776 1.354699 1.368421 1.389641 1.404417 1.407544 1.405058 1.414355 1.413795 1.406846 1.402617 1.415564 1.402237 1.369438 1.357803 1.349371 1.348263 1.343511 1.357747 1.366269 1.383342 1.391652 1.403586 1.408402 1.402573 1.391415 1.383746 1.381298 1.376166 1.371911 1.371214 1.365488 1.365962 1.370979 1.375203 1.380088 1.385507 1.390753 1.404849 1.412898 1.4161 1.424172 1.429394 1.434845 1.446133 1.453684 1.462739 1.475737 1.4902 1.508775 1.522198 1.531984 1.546219 1.558827 1.577445 1.588724 1.601791 1.611995 13.22769 26.7384 17.95635 5.03059 4.326852 4.078906 4.131212 3.918633 3.728081 3.529073 3.236107 3.177385 3.223626 3.258806 3.191319 3.164232 3.114842 3.062366 3.062528 3.087124 3.115184 3.225606 3.268466 3.276099 3.41101 3.423744 3.509556 3.529285 3.577481 3.609747 3.596059 3.575592 3.604075 3.594061 3.56315 3.544003 3.564795 3.533098 3.458679 3.428372 3.40541 3.401246 3.376169 3.414956 3.426942 3.467424 3.485545 3.520132 3.536658 3.525481 3.498452 3.479095 3.470683 3.449836 3.434148 3.426929 3.40938 3.408354 3.419072 3.427303 3.437119 3.448309 3.458528 3.491997 3.508985 3.523156 3.549256 3.569615 3.591036 3.627379 3.65555 3.685316 3.722054 3.761989 3.810926 3.844366 3.866939 3.900618 3.93045 3.9773 4.005788 4.038682 4.065387 33.73737 92.81676 42.38354 ]
<!EndOfComponent> 
</Nnet> 
